FANN_FLO_2.1
num_layers=3
learning_rate=0.700000
connection_rate=1.000000
network_type=0
learning_momentum=0.000000
training_algorithm=2
train_error_function=1
train_stop_function=0
cascade_output_change_fraction=0.010000
quickprop_decay=-0.000100
quickprop_mu=1.750000
rprop_increase_factor=1.200000
rprop_decrease_factor=0.500000
rprop_delta_min=0.000000
rprop_delta_max=50.000000
rprop_delta_zero=0.100000
cascade_output_stagnation_epochs=12
cascade_candidate_change_fraction=0.010000
cascade_candidate_stagnation_epochs=12
cascade_max_out_epochs=150
cascade_min_out_epochs=50
cascade_max_cand_epochs=150
cascade_min_cand_epochs=50
cascade_num_candidate_groups=2
bit_fail_limit=3.49999994039535522461e-01
cascade_candidate_limit=1.00000000000000000000e+03
cascade_weight_multiplier=4.00000005960464477539e-01
cascade_activation_functions_count=10
cascade_activation_functions=3 5 7 8 10 11 14 15 16 17 
cascade_activation_steepnesses_count=4
cascade_activation_steepnesses=2.50000000000000000000e-01 5.00000000000000000000e-01 7.50000000000000000000e-01 1.00000000000000000000e+00 
layer_sizes=3 11 2 
scale_included=0
neurons (num_inputs, activation_function, activation_steepness)=(0, 0, 0.00000000000000000000e+00) (0, 0, 0.00000000000000000000e+00) (0, 0, 0.00000000000000000000e+00) (3, 3, 5.00000000000000000000e-01) (3, 3, 5.00000000000000000000e-01) (3, 3, 5.00000000000000000000e-01) (3, 3, 5.00000000000000000000e-01) (3, 3, 5.00000000000000000000e-01) (3, 3, 5.00000000000000000000e-01) (3, 3, 5.00000000000000000000e-01) (3, 3, 5.00000000000000000000e-01) (3, 3, 5.00000000000000000000e-01) (3, 3, 5.00000000000000000000e-01) (0, 3, 0.00000000000000000000e+00) (11, 3, 5.00000000000000000000e-01) (0, 3, 0.00000000000000000000e+00) 
connections (connected_to_neuron, weight)=(0, -5.73591804504394531250e+00) (1, 2.65978527069091796875e+00) (2, -7.52462959289550781250e+00) (0, -2.91201281547546386719e+00) (1, -7.26477205753326416016e-01) (2, 7.36796379089355468750e+00) (0, 2.39915060997009277344e+00) (1, -4.42956328392028808594e-01) (2, 7.53743600845336914062e+00) (0, -1.02674655914306640625e+01) (1, 3.02866578102111816406e+00) (2, 7.76199293136596679688e+00) (0, 1.49439318847656250000e+03) (1, -7.44664428710937500000e+02) (2, 3.85254168510437011719e+00) (0, -1.44179980468750000000e+03) (1, -1.73282659053802490234e+00) (2, 7.20404481887817382812e+00) (0, 2.34934043884277343750e+00) (1, -4.35241013765335083008e-01) (2, 7.49969148635864257812e+00) (0, 2.12828535586595535278e-02) (1, -3.85610103607177734375e-01) (2, 6.26918792724609375000e-01) (0, -1.67786445617675781250e+01) (1, 3.26300621032714843750e+00) (2, -1.07995128631591796875e+01) (0, -2.72184520959854125977e-01) (1, -3.68928670883178710938e-01) (2, 8.38946640491485595703e-01) (3, -4.03620898723602294922e-01) (4, -5.08155465126037597656e-01) (5, -3.52186053991317749023e-01) (6, -4.65116322040557861328e-01) (7, -1.85786223411560058594e+00) (8, -1.69700288772583007812e+00) (9, -3.66599708795547485352e-01) (10, -7.69472837448120117188e-01) (11, -7.49183893203735351562e-01) (12, -7.86289989948272705078e-01) (13, -3.62675249576568603516e-01) 
